<?xml version="1.0"?>
<opencv_storage>
<opencv_ml_svm>
  <format>3</format>
  <svmType>C_SVC</svmType>
  <kernel>
    <type>RBF</type>
    <gamma>1.</gamma></kernel>
  <C>1.</C>
  <term_criteria><iterations>100</iterations></term_criteria>
  <var_count>8</var_count>
  <class_count>2</class_count>
  <class_labels type_id="opencv-matrix">
    <rows>2</rows>
    <cols>1</cols>
    <dt>i</dt>
    <data>
      0 1</data></class_labels>
  <sv_total>200</sv_total>
  <support_vectors>
    <_>
      -8.74120451e-06 6.40393398e-43 -8.74072430e-06 6.40393398e-43
      -8.74076795e-06 6.40393398e-43 -8.74124817e-06 6.40393398e-43</_>
    <_>
      -8.74050602e-06 6.40393398e-43 -8.74085526e-06 6.40393398e-43
      -8.74146644e-06 6.40393398e-43 -8.74054967e-06 6.40393398e-43</_>
    <_>
      -8.76438571e-06 6.40393398e-43 -8.76185368e-06 6.40393398e-43
      -8.76277045e-06 6.40393398e-43 -8.76237755e-06 6.40393398e-43</_>
    <_>
      -8.76429840e-06 6.40393398e-43 -8.76451668e-06 6.40393398e-43
      -8.76263948e-06 6.40393398e-43 -8.76211561e-06 6.40393398e-43</_>
    <_>
      -8.76390550e-06 6.40393398e-43 -8.76456033e-06 6.40393398e-43
      -8.76368722e-06 6.40393398e-43 -8.76442937e-06 6.40393398e-43</_>
    <_>
      -8.77455750e-06 6.40393398e-43 -8.77442653e-06 6.40393398e-43
      -8.77333514e-06 6.40393398e-43 -8.77551793e-06 6.40393398e-43</_>
    <_>
      -8.77320417e-06 6.40393398e-43 -8.77481943e-06 6.40393398e-43
      -8.77316052e-06 6.40393398e-43 -8.77324783e-06 6.40393398e-43</_>
    <_>
      -8.77337880e-06 6.40393398e-43 -8.77302955e-06 6.40393398e-43
      -8.77508137e-06 6.40393398e-43 -8.77460116e-06 6.40393398e-43</_>
    <_>
      -8.77556158e-06 6.40393398e-43 -8.77420825e-06 6.40393398e-43
      -8.77329148e-06 6.40393398e-43 -8.77342245e-06 6.40393398e-43</_>
    <_>
      -8.77525599e-06 6.40393398e-43 -8.77560524e-06 6.40393398e-43
      -8.77307320e-06 6.40393398e-43 -8.77394632e-06 6.40393398e-43</_>
    <_>
      -8.77355342e-06 6.40393398e-43 -8.77547427e-06 6.40393398e-43
      -8.77569255e-06 6.40393398e-43 -8.77381535e-06 6.40393398e-43</_>
    <_>
      -8.77346611e-06 6.40393398e-43 -8.77512502e-06 6.40393398e-43
      -8.77573621e-06 6.40393398e-43 -8.77486309e-06 6.40393398e-43</_>
    <_>
      -8.77564889e-06 6.40393398e-43 -8.77298589e-06 6.40393398e-43
      -8.77538696e-06 6.40393398e-43 -8.77359707e-06 6.40393398e-43</_>
    <_>
      -8.77364073e-06 6.40393398e-43 -8.77516868e-06 6.40393398e-43
      -8.77403363e-06 6.40393398e-43 -8.77311686e-06 6.40393398e-43</_>
    <_>
      -8.77350976e-06 6.40393398e-43 -8.77368439e-06 6.40393398e-43
      -8.77372804e-06 6.40393398e-43 -8.77385901e-06 6.40393398e-43</_>
    <_>
      -8.77429557e-06 6.40393398e-43 -8.77390266e-06 6.40393398e-43
      -8.77521234e-06 6.40393398e-43 -8.77377170e-06 6.40393398e-43</_>
    <_>
      -8.77407729e-06 6.40393398e-43 -8.77543062e-06 6.40393398e-43
      -8.77398998e-06 6.40393398e-43 -8.77499406e-06 6.40393398e-43</_>
    <_>
      -8.77473212e-06 6.40393398e-43 -8.77468847e-06 6.40393398e-43
      -8.77412094e-06 6.40393398e-43 -8.77433922e-06 6.40393398e-43</_>
    <_>
      -8.77416460e-06 6.40393398e-43 -8.77447019e-06 6.40393398e-43
      -8.77534330e-06 6.40393398e-43 -8.77451384e-06 6.40393398e-43</_>
    <_>
      -8.77477578e-06 6.40393398e-43 -8.77490675e-06 6.40393398e-43
      -8.77464481e-06 6.40393398e-43 -8.77495040e-06 6.40393398e-43</_>
    <_>
      -8.77503771e-06 6.40393398e-43 -8.77425191e-06 6.40393398e-43
      -8.77529965e-06 6.40393398e-43 -8.77438288e-06 6.40393398e-43</_>
    <_>
      -8.77804996e-06 6.40393398e-43 -8.77752609e-06 6.40393398e-43
      -8.77761340e-06 6.40393398e-43 -8.77831189e-06 6.40393398e-43</_>
    <_>
      -8.77726416e-06 6.40393398e-43 -8.77735147e-06 6.40393398e-43
      -8.77783168e-06 6.40393398e-43 -8.77599814e-06 6.40393398e-43</_>
    <_>
      -8.77778803e-06 6.40393398e-43 -8.77774437e-06 6.40393398e-43
      -8.77848652e-06 6.40393398e-43 -8.77634739e-06 6.40393398e-43</_>
    <_>
      -8.77739512e-06 6.40393398e-43 -8.77656566e-06 6.40393398e-43
      -8.77765706e-06 6.40393398e-43 -8.77730781e-06 6.40393398e-43</_>
    <_>
      0. 0. 1.90066936e+36 2.54368100e-29 -8.25551979e-06 6.40393398e-43
      -8.43129237e-06 6.40393398e-43</_>
    <_>
      2.24207754e-44 -5.56616044e+29 8.37385889e+26 0. 1.90576591e-42 0.
      -8.81064625e-06 6.40393398e-43</_>
    <_>
      2.79716015e-01 9.50983018e-02 7.88144016e+00 3.96739006e-01
      1.98667005e-01 5.99008016e-02 8.84632990e-02 1.18247002e-01</_>
    <_>
      0. 0. 3.98085451e+00 -2.52443193e-29 2.96294004e-01 1.06721997e-01
      8.30692959e+00 3.98907006e-01</_>
    <_>
      3.23929012e-01 1.35763004e-01 1.30803003e+01 4.18994009e-01
      5.44432998e-01 7.76422024e-02 1.15800001e-01 1.55678004e-01</_>
    <_>
      3.10185999e-01 1.18528999e-01 7.61078978e+00 3.87639999e-01
      5.96921980e-01 8.37225020e-02 1.25493005e-01 1.69329002e-01</_>
    <_>
      2.80187994e-01 1.03403002e-01 1.62350998e+01 4.04493988e-01
      3.02127004e-01 6.25872016e-02 9.32907015e-02 1.25477001e-01</_>
    <_>
      3.05642009e-01 1.10078998e-01 6.44568014e+00 4.00000006e-01
      5.58781028e-01 7.77434036e-02 1.16829000e-01 1.55833006e-01</_>
    <_>
      0. 0. 2.54334021e+00 -2.52597268e-29 3.36773992e-01 1.61091998e-01
      1.67884007e+01 3.88235003e-01</_>
    <_>
      3.17840010e-01 1.43362001e-01 1.32660999e+01 4.37500000e-01
      3.01207006e-01 8.22480991e-02 1.23554997e-01 1.64456993e-01</_>
    <_>
      3.51406991e-01 1.75812006e-01 1.05485001e+01 4.57143009e-01
      2.16061994e-01 7.46112987e-02 1.11065999e-01 1.50300995e-01</_>
    <_>
      0. 0. 2.07458687e+00 -2.52674305e-29 1.66141003e-01 4.51713018e-02
      2.60037003e+01 3.83332998e-01</_>
    <_>
      3.72007996e-01 6.30085990e-02 9.67923030e-02 1.28346995e-01 0. 0.
      2.02776837e+00 -2.52682009e-29</_>
    <_>
      3.11845005e-01 1.19756997e-01 1.00326004e+01 3.66667002e-01
      1.99278995e-01 5.19219004e-02 7.66576007e-02 1.02995001e-01</_>
    <_>
      2.74686992e-01 9.34882015e-02 9.23151016e+00 3.94443989e-01
      1.52590007e-01 4.85927984e-02 7.09367990e-02 9.82787982e-02</_>
    <_>
      3.32583010e-01 1.40395001e-01 1.03402004e+01 4.17142987e-01
      3.26229990e-01 5.99050000e-02 9.03398022e-02 1.21143997e-01</_>
    <_>
      0. 0. 7.64927292e+00 -2.52797565e-29 2.99600989e-01 1.21510997e-01
      1.33059998e+01 4.15300995e-01</_>
    <_>
      2.69869000e-01 8.94116014e-02 8.08234978e+00 4.11110997e-01
      5.33448994e-01 7.75516033e-02 1.13325998e-01 1.54398993e-01</_>
    <_>
      3.55347008e-01 1.76954001e-01 1.37778997e+01 4.54544991e-01
      3.02731007e-01 6.48157969e-02 9.62145999e-02 1.28916994e-01</_>
    <_>
      2.72220999e-01 9.20723975e-02 9.33699989e+00 3.92264992e-01
      1.48010001e-01 5.13501018e-02 7.70044997e-02 1.02798998e-01</_>
    <_>
      3.33548009e-01 1.38706997e-01 1.17751999e+01 4.00000006e-01
      3.14027995e-01 6.35531992e-02 9.60830972e-02 1.29558995e-01</_>
    <_>
      3.86016011e-01 1.86003000e-01 7.24372005e+00 4.36782002e-01
      1.84020996e-01 5.64205013e-02 8.57414976e-02 1.14633001e-01</_>
    <_>
      1.62310004e-01 3.97625007e-02 2.40610008e+01 3.48214000e-01
      1.69677004e-01 5.01028001e-02 7.53623992e-02 1.02071002e-01</_>
    <_>
      0. 0. 1.49231892e+01 -2.53059491e-29 3.31806988e-01 1.41544998e-01
      1.38008003e+01 3.96647990e-01</_>
    <_>
      0. 0. 1.45481987e+01 -2.53074898e-29 3.64742994e-01 1.58772007e-01
      6.46403980e+00 3.89535010e-01</_>
    <_>
      3.55408996e-01 1.49256006e-01 6.28933001e+00 3.94286007e-01
      3.17690015e-01 6.26856014e-02 9.47379023e-02 1.26341000e-01</_>
    <_>
      3.14089000e-01 1.16889000e-01 7.41472006e+00 3.93258005e-01
      2.87167996e-01 5.48968986e-02 8.29842985e-02 1.13530003e-01</_>
    <_>
      4.01627988e-01 2.25161001e-01 5.55158997e+00 4.36464012e-01
      3.02428991e-01 7.92827979e-02 1.19046003e-01 1.60495996e-01</_>
    <_>
      3.02089006e-01 1.54886007e-01 1.99811001e+01 5.16779006e-01
      2.25215003e-01 4.78947982e-02 7.25888982e-02 9.63089019e-02</_>
    <_>
      3.60350996e-01 2.37957999e-01 1.08280001e+01 5.28571010e-01
      6.64363027e-01 7.39943981e-02 1.11074001e-01 1.49462998e-01</_>
    <_>
      0. 0. 2.93466454e+01 -2.53398455e-29 3.89530987e-01 1.85941994e-01
      5.87564993e+00 3.85057002e-01</_>
    <_>
      4.84903008e-01 2.73128986e-01 5.21570015e+00 3.75723004e-01
      7.70573020e-01 8.04253966e-02 1.20098002e-01 1.61247000e-01</_>
    <_>
      1.82831004e-01 3.73505987e-02 1.69783993e+01 1.85393006e-01
      1.98973998e-01 8.99913013e-02 1.35066003e-01 1.79839998e-01</_>
    <_>
      0. 0. 2.03464775e+01 -2.53583344e-29 4.77614999e-01 2.61025995e-01
      4.36323977e+00 3.78531009e-01</_>
    <_>
      4.80176985e-01 2.71838009e-01 5.13157988e+00 3.59281003e-01
      3.34778994e-01 5.90393990e-02 8.72249976e-02 1.20398000e-01</_>
    <_>
      4.14440989e-01 6.05574995e-02 9.05162022e-02 1.21554002e-01 0. 0.
      5.99417839e+01 -2.53714307e-29</_>
    <_>
      0. 0. 5.91917725e+01 -2.53722011e-29 5.02712011e-01 3.11223000e-01
      5.81086016e+00 3.80952001e-01</_>
    <_>
      0. 0. 5.16916580e+01 -2.53799048e-29 4.87502992e-01 3.05198014e-01
      4.81063986e+00 4.79532003e-01</_>
    <_>
      3.00904006e-01 6.49916008e-02 9.79977027e-02 1.32045001e-01 0. 0.
      5.09417076e+01 -2.53806752e-29</_>
    <_>
      2.76793003e-01 5.90124018e-02 8.86529982e-02 1.19121000e-01 0. 0.
      4.34415321e+01 -2.53883789e-29</_>
    <_>
      0. 0. 4.26915817e+01 -2.53891493e-29 4.91818994e-01 2.87034988e-01
      6.09318018e+00 3.80952001e-01</_>
    <_>
      7.07090020e-01 7.29587004e-02 1.09897003e-01 1.46028996e-01 0. 0.
      3.59414177e+01 -2.53960826e-29</_>
    <_>
      0. 0. 1.19384537e+02 -2.54045567e-29 4.90161002e-01 2.78979987e-01
      4.50684977e+00 3.75000000e-01</_>
    <_>
      6.43916011e-01 7.33636990e-02 1.10216998e-01 1.48050994e-01 0. 0.
      1.17884636e+02 -2.54053271e-29</_>
    <_>
      6.19509995e-01 6.75624982e-02 1.00979000e-01 1.35597005e-01 0. 0.
      1.27884422e+02 -2.54084086e-29</_>
    <_>
      0. 0. 1.26384399e+02 -2.54091789e-29 4.62709010e-01 2.78972000e-01
      4.81876993e+00 4.37126011e-01</_>
    <_>
      0. 0. 1.23384476e+02 -2.54107197e-29 1.86389998e-01 5.09058014e-02
      2.12817993e+01 3.39286000e-01</_>
    <_>
      4.33346987e-01 5.99029996e-02 8.95396993e-02 1.20274000e-01 0. 0.
      1.02884285e+02 -2.54130308e-29</_>
    <_>
      0. 0. 1.01384384e+02 -2.54138012e-29 5.05074978e-01 3.02365005e-01
      5.16962004e+00 3.75723004e-01</_>
    <_>
      3.39944005e-01 1.85397997e-01 1.15158005e+01 5.64285994e-01
      3.37215006e-01 5.40563017e-02 8.05926993e-02 1.08888000e-01</_>
    <_>
      0. 0. 1.11384171e+02 -2.54168827e-29 4.90803987e-01 2.80036986e-01
      4.62824011e+00 3.55030000e-01</_>
    <_>
      4.42508012e-01 5.75462990e-02 8.67910981e-02 1.16204999e-01 0. 0.
      1.09884270e+02 -2.54176530e-29</_>
    <_>
      6.68950975e-01 7.03407004e-02 1.05614997e-01 1.42012000e-01 0. 0.
      8.78840561e+01 -2.54207345e-29</_>
    <_>
      0. 0. 8.63840332e+01 -2.54215049e-29 6.11072004e-01 4.69348997e-01
      4.44353008e+00 4.17647004e-01</_>
    <_>
      2.51744002e-01 1.00348003e-01 1.65531006e+01 4.74575996e-01
      1.00800002e+00 8.10761973e-02 1.21950999e-01 1.63694993e-01</_>
    <_>
      5.95511973e-01 4.99496013e-01 5.31663990e+00 4.40993994e-01
      1.07238996e+00 7.78656974e-02 1.16195001e-01 1.56962007e-01</_>
    <_>
      2.13416994e-01 6.97065964e-02 2.23628998e+01 3.00000012e-01
      9.13688004e-01 8.35572034e-02 1.24773003e-01 1.68418005e-01</_>
    <_>
      4.69956011e-01 3.32459986e-01 8.37248039e+00 4.90446001e-01
      2.92358011e-01 7.75659010e-02 1.15892000e-01 1.55452996e-01</_>
    <_>
      4.84881014e-01 2.92100996e-01 3.90114999e+00 4.59769994e-01
      3.05790991e-01 7.52646998e-02 1.14368998e-01 1.49431005e-01</_>
    <_>
      4.59540993e-01 3.28038990e-01 7.80618000e+00 4.66215998e-01
      3.08840990e-01 6.24029003e-02 9.31873992e-02 1.26464993e-01</_>
    <_>
      1.01389003e+00 1.46957004e+00 3.33756995e+00 3.33332986e-01
      3.64075989e-01 7.55264983e-02 1.13170996e-01 1.51952997e-01</_>
    <_>
      4.42200989e-01 3.22526008e-01 8.68424988e+00 4.71428990e-01
      3.94279987e-01 6.35763034e-02 9.52607021e-02 1.27973005e-01</_>
    <_>
      5.62092006e-01 3.69221002e-01 4.19715977e+00 3.84615004e-01
      1.13707995e+00 7.74326026e-02 1.15985997e-01 1.55702993e-01</_>
    <_>
      1.26673996e+00 2.42006993e+00 2.27374005e+00 5.18518984e-01
      1.20940006e+00 5.92783988e-02 8.86662006e-02 1.18873999e-01</_>
    <_>
      1.18204999e+00 1.51306999e+00 1.39894998e+00 5.61223999e-02
      1.67904997e+00 7.87146986e-02 1.17728002e-01 1.58375993e-01</_>
    <_>
      1.10946000e+00 1.33052003e+00 1.64569998e+00 4.73683998e-02
      1.20208001e+00 6.20416999e-02 9.29113999e-02 1.24559999e-01</_>
    <_>
      1.08155000e+00 1.25619996e+00 1.41996002e+00 6.59897998e-02
      1.42088997e+00 7.21293017e-02 1.07798003e-01 1.44751996e-01</_>
    <_>
      1.39117002e+00 2.05568004e+00 1.54273999e+00 4.67289984e-02
      1.50178003e+00 7.15295970e-02 1.07353002e-01 1.44323006e-01</_>
    <_>
      1.12128997e+00 1.36338997e+00 2.06420994e+00 2.61780005e-02
      7.34884977e-01 5.33161014e-02 7.98225030e-02 1.06841996e-01</_>
    <_>
      1.46188998e+00 2.27168012e+00 1.18379998e+00 8.49056989e-02
      1.48284996e+00 7.10560009e-02 1.06564999e-01 1.43103004e-01</_>
    <_>
      1.38177001e+00 2.03431010e+00 1.70086002e+00 7.07546994e-02
      1.13221002e+00 6.41753972e-02 9.60561037e-02 1.28987998e-01</_>
    <_>
      1.58616996e+00 2.75304008e+00 1.03058004e+00 1.40909001e-01
      3.00603986e-01 6.13217019e-02 9.21744034e-02 1.23822004e-01</_>
    <_>
      1.41406000e+00 3.56555009e+00 1.94520998e+00 5.87413013e-01
      9.59182024e-01 5.36018983e-02 7.98780024e-02 1.07600003e-01</_>
    <_>
      1.23941004e+00 2.08631992e+00 2.31201005e+00 4.67032999e-01
      2.44355989e+00 6.81943968e-02 1.02141000e-01 1.37224004e-01</_>
    <_>
      1.11925995e+00 1.34535003e+00 1.37939000e+00 5.69947995e-02
      7.36688972e-01 5.61574996e-02 8.41358006e-02 1.13150999e-01</_>
    <_>
      1.47949004e+00 6.61021024e-02 9.88574997e-02 1.32990003e-01 0. 0.
      3.16358032e+03 -2.55794311e-29</_>
    <_>
      1.09935999e+00 1.30028999e+00 1.47836006e+00 3.60824987e-02
      6.73511982e-01 5.54673001e-02 8.38007033e-02 1.12272002e-01</_>
    <_>
      0. 0. 3.11557568e+03 -2.55802015e-29 1.39308000e+00 2.04991007e+00
      1.19113004e+00 5.11628017e-02</_>
    <_>
      9.06969011e-01 5.98170012e-02 8.95728022e-02 1.20307997e-01 0. 0.
      3.57957495e+03 -2.55809719e-29</_>
    <_>
      9.52714980e-01 1.25163996e+00 3.48541999e+00 4.05063003e-01
      4.26328987e-01 6.31309971e-02 9.42341983e-02 1.26710996e-01</_>
    <_>
      0. 0. 3.53157422e+03 -2.55817423e-29 2.17988998e-01 9.34785977e-02
      1.17625999e+01 3.35525990e-01</_>
    <_>
      5.82886994e-01 6.34894967e-02 9.53543037e-02 1.28071994e-01 0. 0.
      3.48357739e+03 -2.55825126e-29</_>
    <_>
      1.16561997e+00 1.46389997e+00 1.58872998e+00 6.25000000e-02
      1.44929004e+00 6.62854984e-02 9.91979986e-02 1.32930994e-01</_>
    <_>
      0. 0. 3.43557666e+03 -2.55832830e-29 1.10748005e+00 1.31422997e+00
      1.50379002e+00 9.18366984e-02</_>
    <_>
      7.87961006e-01 6.34284019e-02 9.48671028e-02 1.27505004e-01 0. 0.
      3.38757202e+03 -2.55840534e-29</_>
    <_>
      1.36101997e+00 2.18804002e+00 1.95152998e+00 3.03867012e-01
      1.89880002e+00 7.34369010e-02 1.09848998e-01 1.47523001e-01</_>
    <_>
      0. 0. 3.33957129e+03 -2.55848238e-29 1.12085998e+00 1.35343003e+00
      1.42324996e+00 3.62694003e-02</_>
    <_>
      1.46757996e+00 7.81790987e-02 1.17215998e-01 1.57322004e-01 0. 0.
      2.77957056e+03 -2.55855941e-29</_>
    <_>
      1.12421000e+00 1.35948002e+00 1.50424004e+00 6.12245016e-02
      1.26924002e+00 6.63184002e-02 9.95175019e-02 1.33516997e-01</_>
    <_>
      0. 0. 2.73157373e+03 -2.55863645e-29 1.20466006e+00 2.34853005e+00
      3.03431010e+00 4.84075993e-01</_>
    <_>
      2.18964005e+00 7.56546035e-02 1.13341004e-01 1.52252004e-01 0. 0.
      2.68357300e+03 -2.55871349e-29</_>
    <_>
      1.08445001e+00 1.26125002e+00 1.59598994e+00 4.10256013e-02
      1.37024999e+00 6.76321015e-02 1.01329997e-01 1.36144996e-01</_>
    <_>
      0. 0. 2.63557227e+03 -2.55879052e-29 1.31687999e+00 2.81884003e+00
      2.20564008e+00 5.16556025e-01</_>
    <_>
      1.25181997e+00 5.94802015e-02 8.92535001e-02 1.19880997e-01 0. 0.
      2.58756763e+03 -2.55886756e-29</_>
    <_>
      0. 0. 3.05156689e+03 -2.55894460e-29 1.51687002e+00 2.43296003e+00
      1.05125999e+00 1.03285998e-01</_>
    <_>
      9.75327015e-01 6.48956001e-02 9.70638990e-02 1.30326003e-01 0. 0.
      3.00357007e+03 -2.55902164e-29</_>
    <_>
      0. 0. 2.95556934e+03 -2.55909867e-29 1.49512005e+00 2.36423993e+00
      1.01069999e+00 9.75610018e-02</_>
    <_>
      1.31560004e+00 6.16917983e-02 9.22221988e-02 1.23870999e-01 0. 0.
      2.90756860e+03 -2.55917571e-29</_>
    <_>
      0. 0. 2.85956396e+03 -2.55925275e-29 1.56231999e+00 2.55219007e+00
      9.59823012e-01 4.04039994e-02</_>
    <_>
      1.39926004e+00 6.05257004e-02 9.10551026e-02 1.22263998e-01 0. 0.
      2.29956323e+03 -2.55932978e-29</_>
    <_>
      0. 0. 2.25156250e+03 -2.55940682e-29 1.52604997e+00 2.46032000e+00
      1.02171004e+00 7.51174018e-02</_>
    <_>
      1.82799995e+00 6.32461011e-02 9.45195034e-02 1.26911998e-01 0. 0.
      2.20356567e+03 -2.55948386e-29</_>
    <_>
      6.95454001e-01 9.61925030e-01 3.17255998e+00 4.11042988e-01
      2.01174998e+00 6.59796968e-02 9.90286022e-02 1.32789999e-01</_>
    <_>
      0. 0. 2.15556494e+03 -2.55956090e-29 1.79937994e+00 3.47480011e+00
      9.11980987e-01 1.38393000e-01</_>
    <_>
      3.03344995e-01 5.33770993e-02 7.96762034e-02 1.07372999e-01 0. 0.
      2.10762280e+03 -2.55963793e-29</_>
    <_>
      1.48503006e+00 2.32715988e+00 1.02049994e+00 8.13397020e-02
      2.37396002e+00 7.65004009e-02 1.14680000e-01 1.53905004e-01</_>
    <_>
      0. 0. 2.05962207e+03 -2.55971497e-29 1.51365995e+00 2.42406011e+00
      1.17031002e+00 7.84313977e-02</_>
    <_>
      2.83691001e+00 7.68541023e-02 1.15093000e-01 1.54616997e-01 0. 0.
      2.52362134e+03 -2.55979201e-29</_>
    <_>
      0. 0. 2.47562451e+03 -2.55986904e-29 1.66760004e+00 2.90668011e+00
      9.09748971e-01 5.20832986e-02</_>
    <_>
      1.74814999e-01 5.01593985e-02 1.96516991e+01 3.87755007e-01
      7.34869003e-01 6.50233030e-02 9.77865010e-02 1.31372005e-01</_>
    <_>
      2.00359011e+00 4.56863022e+00 1.49588001e+00 1.65803000e-01
      2.13257003e+00 7.22787008e-02 1.08236998e-01 1.45245999e-01</_>
    <_>
      1.63863003e+00 2.96193004e+00 1.04464996e+00 1.28571004e-01
      3.00595999e-01 4.80111986e-02 7.16819018e-02 9.64367986e-02</_>
    <_>
      1.49916005e+00 2.38682008e+00 1.23383999e+00 1.08911000e-01
      1.28783000e+00 6.67852014e-02 1.00025997e-01 1.34342998e-01</_>
    <_>
      1.51678002e+00 2.47073007e+00 1.64189994e+00 1.25653997e-01
      1.00037003e+00 7.07174018e-02 1.05756998e-01 1.42046005e-01</_>
    <_>
      1.51810002e+00 2.47397995e+00 1.84364998e+00 5.61223999e-02
      1.08948004e+00 6.07598983e-02 9.12664011e-02 1.22502998e-01</_>
    <_>
      3.86729985e-01 3.23049992e-01 5.74073982e+00 4.30656999e-01
      1.35100996e+00 6.90488964e-02 1.03578001e-01 1.38912007e-01</_>
    <_>
      2.82447994e-01 1.27749994e-01 7.39346981e+00 6.85315013e-01
      1.03148997e-01 5.15872017e-02 7.70564973e-02 1.04567997e-01</_>
    <_>
      3.26025993e-01 2.83385992e-01 1.33653002e+01 6.77164972e-01
      9.15526003e-02 5.91900013e-02 8.91264975e-02 1.19845003e-01</_>
    <_>
      2.82588005e-01 1.93124995e-01 1.31234999e+01 7.00855017e-01
      5.47482014e-01 6.80653006e-02 1.04195997e-01 1.37767002e-01</_>
    <_>
      4.08109993e-01 2.66674995e-01 5.45979977e+00 6.58119977e-01
      8.91102031e-02 6.81426004e-02 1.01006001e-01 1.35977998e-01</_>
    <_>
      4.02401000e-01 3.37951005e-01 7.85805988e+00 6.92308009e-01
      3.48513007e-01 4.81775999e-02 7.28996024e-02 9.72836986e-02</_>
    <_>
      3.80412012e-01 2.18214005e-01 5.99122000e+00 6.74602985e-01
      3.84826005e-01 5.50720990e-02 8.21072012e-02 1.11011997e-01</_>
    <_>
      3.47889006e-01 1.97508007e-01 7.56962013e+00 6.78322017e-01
      5.47481000e-01 6.82896003e-02 1.02339998e-01 1.37568995e-01</_>
    <_>
      4.73549008e-01 3.65397990e-01 8.51473045e+00 7.08954990e-01
      1.22651005e+00 8.66912976e-02 1.29850000e-01 1.74519002e-01</_>
    <_>
      4.28566992e-01 2.40353003e-01 5.14863014e+00 7.14286029e-01
      5.63665986e-01 7.45071024e-02 1.11576997e-01 1.49693996e-01</_>
    <_>
      1.64703995e-01 4.65299003e-02 2.22273998e+01 4.09449011e-01
      2.10875005e-01 6.28364980e-02 9.42799971e-02 1.26323998e-01</_>
    <_>
      3.20062011e-01 2.19612002e-01 1.12017002e+01 7.26414979e-01
      3.91544014e-01 5.16875014e-02 7.72641972e-02 1.03479996e-01</_>
    <_>
      2.22093001e-01 1.29714996e-01 2.14044991e+01 6.07477009e-01
      2.30530000e+00 1.02075003e-01 1.52608007e-01 2.05569997e-01</_>
    <_>
      3.00287992e-01 2.32602999e-01 1.38521996e+01 6.73076987e-01
      1.98972002e-01 4.14888002e-02 6.16338998e-02 8.31082985e-02</_>
    <_>
      4.08638000e-01 3.58801991e-01 4.58695984e+00 7.50000000e-01
      3.00599992e-01 5.69326989e-02 8.54680017e-02 1.14780001e-01</_>
    <_>
      2.81156003e-01 1.34984002e-01 7.07186985e+00 7.11111009e-01
      1.50450006e-01 5.98056987e-02 8.97433013e-02 1.19672000e-01</_>
    <_>
      5.39739013e-01 7.60707974e-01 7.93078995e+00 7.14286029e-01
      3.28981012e-01 8.99048001e-02 1.35349005e-01 1.81557998e-01</_>
    <_>
      1.88920006e-01 6.38275966e-02 1.21252003e+01 7.44526029e-01
      4.09853011e-01 7.55444020e-02 1.12799004e-01 1.50929004e-01</_>
    <_>
      1.95989996e-01 7.03736022e-02 1.62446003e+01 7.56944001e-01
      5.65788984e-01 8.42005014e-02 1.24868996e-01 1.69110999e-01</_>
    <_>
      3.86983991e-01 2.66883999e-01 4.88380003e+00 7.44681001e-01
      1.02751994e+00 7.93363973e-02 1.19819000e-01 1.60528004e-01</_>
    <_>
      1.87462002e-01 5.67313991e-02 1.10276003e+01 7.14286029e-01
      4.93770003e-01 8.20005983e-02 1.22392997e-01 1.64094001e-01</_>
    <_>
      1.88081995e-01 6.49358034e-02 1.81219006e+01 7.34265983e-01
      7.62934014e-02 4.41418998e-02 7.08097965e-02 8.81903023e-02</_>
    <_>
      1.92251995e-01 6.64165989e-02 1.05590000e+01 7.30495989e-01
      5.28262019e-01 8.65745023e-02 1.29931003e-01 1.73553005e-01</_>
    <_>
      1.88876003e-01 6.11746013e-02 1.53998003e+01 6.97842002e-01
      4.28773999e-01 8.20956975e-02 1.22574002e-01 1.64728999e-01</_>
    <_>
      1.68951005e-01 4.65702005e-02 1.67168007e+01 7.41258979e-01
      4.44640011e-01 7.46830031e-02 1.13347001e-01 1.52528003e-01</_>
    <_>
      1.88397005e-01 6.00772016e-02 1.05150003e+01 7.22627997e-01
      1.63571998e-01 5.52975014e-02 8.08508992e-02 1.11807004e-01</_>
    <_>
      1.71279997e-01 8.40594992e-02 2.38486004e+01 7.18750000e-01
      5.95701993e-01 6.64424002e-02 1.00459002e-01 1.35324001e-01</_>
    <_>
      2.42016003e-01 9.14274007e-02 8.15116024e+00 5.78616023e-01
      7.26331994e-02 6.67430013e-02 1.03005998e-01 1.38641998e-01</_>
    <_>
      2.35985994e-01 8.87179002e-02 8.93327999e+00 5.79617977e-01
      1.58386007e-01 4.53481004e-02 6.73556998e-02 9.02338028e-02</_>
    <_>
      3.00370991e-01 1.29960999e-01 6.38950014e+00 6.73332989e-01
      4.40059990e-01 6.16489016e-02 9.36148018e-02 1.22909002e-01</_>
    <_>
      2.78234005e-01 1.16765998e-01 9.24946022e+00 5.43623984e-01
      1.22070000e-01 5.13871983e-02 7.99646974e-02 1.05871998e-01</_>
    <_>
      2.75447011e-01 1.10758997e-01 8.27970028e+00 5.86206973e-01
      1.49838999e-01 4.53297012e-02 6.75486997e-02 8.90553966e-02</_>
    <_>
      2.81428993e-01 1.21661000e-01 9.77525997e+00 5.51724017e-01
      7.41591975e-02 4.91729006e-02 7.33620003e-02 9.77727026e-02</_>
    <_>
      2.75738001e-01 1.13366999e-01 7.56433010e+00 6.66666985e-01
      4.18094009e-01 6.71022981e-02 1.00750998e-01 1.35583997e-01</_>
    <_>
      4.34123993e-01 4.88243997e-01 9.86575031e+00 6.91667020e-01
      1.41600996e-01 4.41398993e-02 6.64455965e-02 8.82116035e-02</_>
    <_>
      5.36803007e-01 7.40813985e-02 1.10480003e-01 1.48975998e-01 0. 0.
      0. 0.</_>
    <_>
      -7.98732799e-06 6.40393398e-43 -8.87022179e-06 6.40393398e-43
      1.40129846e-45 2.80259693e-45 0. 0.</_>
    <_>
      0. 0. 0. 0. 0. 0. 0. 0.</_>
    <_>
      0. 0. 0. 0. 0. 0. 0. 0.</_>
    <_>
      0. 0. 0. 0. 0. 0. 0. 0.</_>
    <_>
      0. 0. 0. 0. 0. 0. 0. 0.</_>
    <_>
      0. 0. 0. 0. 0. 0. 0. 0.</_>
    <_>
      0. 0. 0. 0. 0. 0. 0. 0.</_>
    <_>
      0. 0. 0. 0. 0. 0. 0. 0.</_>
    <_>
      0. 0. 0. 0. 0. 0. 0. 0.</_>
    <_>
      0. 0. 0. 0. 0. 0. 0. 0.</_>
    <_>
      0. 0. 0. 0. 0. 0. 0. 0.</_>
    <_>
      0. 0. 0. 0. 0. 0. 0. 0.</_>
    <_>
      0. 0. 0. 0. 0. 0. 0. 0.</_>
    <_>
      0. 0. 0. 0. 0. 0. 0. 0.</_>
    <_>
      0. 0. 0. 0. 0. 0. 0. 0.</_>
    <_>
      0. 0. 0. 0. 0. 0. 0. 0.</_>
    <_>
      4.20389539e-45 5.60519386e-45 7.00649232e-45 0. 0. 0. 0. 0.</_>
    <_>
      0. 0. 0. 0. 0. 0. 0. 0.</_>
    <_>
      0. 0. 0. 0. 0. 0. 0. 0.</_>
    <_>
      0. 0. 0. 0. 0. 0. 0. 0.</_>
    <_>
      0. 0. 0. 0. 0. 0. 0. 0.</_>
    <_>
      0. 0. 0. 0. 0. 0. 0. 0.</_>
    <_>
      0. 0. 0. 0. 0. 0. 0. 0.</_>
    <_>
      0. 0. 0. 0. 0. 0. 0. 0.</_></support_vectors>
  <decision_functions>
    <_>
      <sv_count>200</sv_count>
      <rho>0.</rho>
      <alpha>
        1. 1. 1. 1. 1. 1. 1. 1. 1. 1. 1. 1. 1. 1. 1. 1. 1. 1. 1. 1. 1.
        1. 1. 1. 1. 1. 1. 1. 1. 1. 1. 1. 1. 1. 1. 1. 1. 1. 1. 1. 1. 1.
        1. 1. 1. 1. 1. 1. 1. 1. 1. 1. 1. 1. 1. 1. 1. 1. 1. 1. 1. 1. 1.
        1. 1. 1. 1. 1. 1. 1. 1. 1. 1. 1. 1. 1. 1. 1. 1. 1. 1. 1. 1. 1.
        1. 1. 1. 1. 1. 1. 1. 1. 1. 1. 1. 1. 1. 1. 1. 1. -1. -1. -1. -1.
        -1. -1. -1. -1. -1. -1. -1. -1. -1. -1. -1. -1. -1. -1. -1. -1.
        -1. -1. -1. -1. -1. -1. -1. -1. -1. -1. -1. -1. -1. -1. -1. -1.
        -1. -1. -1. -1. -1. -1. -1. -1. -1. -1. -1. -1. -1. -1. -1. -1.
        -1. -1. -1. -1. -1. -1. -1. -1. -1. -1. -1. -1. -1. -1. -1. -1.
        -1. -1. -1. -1. -1. -1. -1. -1. -1. -1. -1. -1. -1. -1. -1. -1.
        -1. -1. -1. -1. -1. -1. -1. -1. -1. -1. -1. -1. -1. -1. -1. -1.</alpha>
      <index>
        0 1 2 3 4 5 6 7 8 9 10 11 12 13 14 15 16 17 18 19 20 21 22 23 24
        25 26 27 28 29 30 31 32 33 34 35 36 37 38 39 40 41 42 43 44 45
        46 47 48 49 50 51 52 53 54 55 56 57 58 59 60 61 62 63 64 65 66
        67 68 69 70 71 72 73 74 75 76 77 78 79 80 81 82 83 84 85 86 87
        88 89 90 91 92 93 94 95 96 97 98 99 100 101 102 103 104 105 106
        107 108 109 110 111 112 113 114 115 116 117 118 119 120 121 122
        123 124 125 126 127 128 129 130 131 132 133 134 135 136 137 138
        139 140 141 142 143 144 145 146 147 148 149 150 151 152 153 154
        155 156 157 158 159 160 161 162 163 164 165 166 167 168 169 170
        171 172 173 174 175 176 177 178 179 180 181 182 183 184 185 186
        187 188 189 190 191 192 193 194 195 196 197 198 199</index></_></decision_functions></opencv_ml_svm>
</opencv_storage>
